{"layers":[{"weights":[[-0.24139808,0.040858865,0.14507069,-0.62806094],[-0.7276378,-0.0710252,-0.0020170386,0.9581079],[0.6985603,0.5435202,-0.56498075,-0.6106997],[-1.0055273,-0.29220155,-0.6961145,0.074571915],[-0.21103942,0.607923,-0.76344514,0.553508],[-0.6761975,-0.4677489,-0.5919384,-0.7174379],[-0.5710149,-0.41513103,0.16484223,0.78755814],[0.02834223,0.18762882,-0.5267762,0.4338229],[-0.08283017,-0.8845301,0.19806546,0.70471895],[0.65939814,-0.35265926,-0.1913563,0.4810558],[0.03648017,0.28350002,-0.3007599,0.9089625],[0.1731668,0.2376882,0.5925741,0.7010489],[0.5636879,0.5522351,0.7824322,0.08631811],[0.2836515,0.7219235,0.09538291,0.53302383],[-0.40629363,-0.7769349,-0.11811683,0.65347105],[-0.017539069,-0.32782602,0.4552435,0.4083843],[-0.7319383,0.35143262,-0.4308295,0.6823503],[-0.8842241,0.639646,0.806609,0.2251567],[0.18274371,0.20094375,0.054757595,0.015054715],[0.24472365,0.60447514,-0.45463526,0.2502007],[-1.0381488,-0.3316056,0.2646042,-0.76807225],[0.23121555,0.70804894,0.061682545,0.5553619],[-0.47434306,-0.36987224,0.9680107,0.71433973],[-0.8829841,-0.2248569,0.76288223,0.76448476]],"biases":[0.30406532,-0.50779563,0.8944309,-0.58250964,-0.7535278,-0.0038233525,0.7351246,-0.5451782,0.42595655,0.14746498,-0.6897653,-0.0695472,-0.8794532,0.51830703,0.26015222,0.57567656,0.03874342,0.52383506,0.43751413,-0.41057238,0.15483463,0.123729385,-0.12632142,-0.03825698],"outputs":[0.5827588,0.0,2.948241,0.0,0.0,0.0,0.0,0.0,0.0,0.0,0.0,5.066142,8.2636795,5.9258857,0.0,1.2266302,0.0,5.781581,2.4216797,1.1802123,0.0,5.104804,1.7102513,0.19453287],"inputs":[3.1101623,5.5369396,5.5369396,0.0],"deltas":[0.0,0.0,0.0,0.0,0.0,0.0,0.0,0.0,0.0,0.0,0.0,0.0,0.0,0.0,0.0,0.0,0.0,0.0,0.0,0.0,0.0,0.0,0.0,0.0]},{"weights":[[0.6432758,-0.9369868,-0.4564639,0.2719017,-0.95756024,0.41756856,0.21108663,0.016868206,-0.88614655,-0.7682818,0.8409434,0.33774203,-1.0617632,0.15102999,0.5232629,0.5860558,0.843572,-0.51753086,-0.07661764,0.5121118,0.5283741,0.7369979,0.12591997,-0.5900044],[0.5809425,0.75694895,-0.10069286,-0.3380487,0.5836698,0.4673106,0.838837,-0.4138658,-0.4402554,-0.62402344,-0.040061302,0.65470254,-0.74444926,-0.9841348,-0.8565879,-0.040075064,-0.9285729,0.23524189,0.94214076,0.23441035,0.65720177,0.13631402,0.039321423,0.31821394],[-0.91670203,0.5227628,-0.68859875,-0.33333957,-0.95563626,0.24858105,-0.6173867,-0.34374282,-0.6463957,0.33246022,0.75071865,-0.8965297,-0.077792674,-0.46089783,-0.9307901,0.7552062,0.6145221,0.08091235,0.5942454,-0.5898934,0.7804153,0.8031631,-0.2893697,-0.17326725],[0.00910604,-0.44344875,-0.30596662,0.78808665,-0.7290462,-0.03994866,0.08009275,0.4946764,0.2382539,-0.26615962,-0.6409136,-0.002504468,0.09928942,-0.9978157,-0.83373755,-0.28168806,-0.22911988,0.6663977,-0.8922136,0.48974562,0.8866197,-0.39257288,-0.13718794,-0.610484]],"biases":[-0.90773886,0.8952316,0.90149057,-1.0039277],"outputs":[0.0,0.0,0.0,0.0],"inputs":[0.5827588,0.0,2.948241,0.0,0.0,0.0,0.0,0.0,0.0,0.0,0.0,5.066142,8.2636795,5.9258857,0.0,1.2266302,0.0,5.781581,2.4216797,1.1802123,0.0,5.104804,1.7102513,0.19453287],"deltas":[0.0,0.0,0.0,0.0]}]}