{"layers":[{"weights":[[0.8124566,0.5224546,0.08825212,0.35918045,-0.3254155],[0.74376833,0.5809034,-0.7798971,0.17337084,0.06832743],[0.19156134,0.25047052,-0.9492204,-0.6069626,-0.55302954],[-0.45847464,-0.7348262,-0.63945204,0.12709218,-0.16890663],[0.56908274,0.9627347,0.4921172,0.13308662,-0.85446274],[-0.98704505,0.7288717,-20.328377,7.8989267,-13.454234],[0.119944096,0.44766927,-0.5817702,0.6510421,0.33385313],[-0.77860355,-0.12388396,-0.90907705,0.9668659,-0.019213438],[-0.19539475,0.07411873,-0.83379686,0.8122864,0.4424466],[-0.30679917,-0.3663888,0.1746705,-0.36682934,-0.98046166],[-0.5277226,0.33190644,-0.99766517,-0.13438761,0.24079883],[-0.6672095,0.5969573,-16.895416,6.852488,-11.339891],[0.40599477,-0.0008739233,0.15116028,0.17701168,-1.0923353],[-0.6638627,0.5937859,-190508770.0,67081116.0,-130709610.0],[0.22674668,-0.25158787,-100442080.0,35367228.0,-68914120.0],[0.51415,-0.16945684,-0.66917825,-0.48122945,-0.9338503],[-0.9584018,0.27495277,-0.07248795,0.8677044,-0.11339593],[-0.39302063,-0.5387579,0.553372,0.4753079,-0.8629052],[-0.47250485,0.99781513,-184311070.0,64898810.0,-126457310.0],[0.97404575,-0.5256727,-0.10952541,-0.59011894,-0.36899146],[-0.009105802,-0.5825374,0.44545317,0.33011898,-0.6651352],[-0.0044392347,0.45953012,-131452450.0,46286460.0,-90190584.0],[-0.6080893,0.4493221,-0.46913406,-0.4106325,-1.9115971],[-0.39972615,-0.60935843,-0.15463102,0.26671863,0.104525685]],"biases":[-0.21390125,-0.67708516,-0.65733975,0.7641848,-0.33456382,-2.06802,-0.8024992,0.39443552,-0.37415695,-0.018249068,0.27242112,-1.0139847,0.17921668,-21326284.0,-11243871.0,0.62583774,0.1490022,-0.6510252,-20632488.0,-0.9389037,-0.20130984,-14715292.0,-0.39466786,-0.35726786],"outputs":[0.96757114,0.0,0.0,0.0,15.865267,0.0,0.0,0.0,0.0,11.795898,0.0,0.0,7.816895,0.0,0.0,0.0,0.0,14.718466,0.0,2.0831957,12.429469,0.0,0.0,0.0],"inputs":[0.0,0.0,27.243141,-7.411745,-4.4231496],"deltas":[0.0,0.0,0.0,0.0,0.0,0.0,0.0,0.0,0.0,0.0,0.0,0.0,0.0,0.0,0.0,0.0,0.0,0.0,0.0,0.0,0.0,0.0,0.0,0.0]},{"weights":[[0.947136,-0.32903206,0.86650294,0.5578899,-0.74139565,-0.682361,-0.16452634,0.09163582,0.12285745,0.49840203,0.11613846,0.03243184,-0.16084732,-1.0285636,-0.4955774,0.62893146,0.0070363283,-0.48228827,0.2413128,0.21508056,0.23972617,-0.65677166,-0.02858501,-0.6787276],[0.8058171,-0.77510977,0.41664255,-0.6561216,0.7045729,34.265205,-0.52559054,0.98663867,-0.2731943,-0.08250429,0.4361136,76.87336,-0.0136517435,-98606420.0,-114078620.0,0.16226694,0.14582288,-0.13311684,-9611041.0,0.7978941,-0.39489084,-21241640.0,-0.4834372,-0.27092743],[-0.09344711,-0.027365685,-0.14340323,-0.30348557,-0.09153226,-0.811944,-0.09121978,0.48844993,0.21359825,0.18222426,-0.22418916,-0.29184142,-0.21346568,38262.473,44266.32,0.4475789,-0.7148918,-0.15670808,3729.98,0.23252797,0.9126152,8241.446,-0.4072654,-0.7521013],[0.4313661,0.39159942,0.28403878,-0.5460468,-0.7037457,-24.09187,0.33686006,0.7185551,-0.16305792,-0.9584005,-0.5081556,-53.987247,-0.04796443,-38.41194,-19.85164,-0.06460542,0.6116729,-0.089075446,-36.998455,-0.6649873,-0.012164235,-26.10699,0.04091513,0.57661057],[0.7483991,0.377694,-0.4388578,0.86849296,-0.4868321,-0.47263706,-0.38619804,0.3914534,-0.38305008,0.19034693,0.7479814,-0.2845568,0.35233256,0.74397594,-0.6840202,0.7459422,0.8580862,-0.7328723,-0.32905293,0.4465888,-0.45448357,-0.9485665,-0.30148318,-0.88318074],[0.57120794,-0.51403165,0.5908993,0.8183099,0.581995,-43.922104,0.9456229,-0.18166065,0.5729346,0.7085843,0.8921864,-96.04317,0.4587604,-67.13174,-35.502987,-0.007817784,0.922323,0.7019359,-66.0612,0.79149973,0.6446624,-46.4706,0.29281646,-0.8817959],[-0.7420095,0.6295327,-0.021615982,0.7718605,-0.15006173,-0.41222668,-0.55292773,0.27112484,-0.94024587,-0.36141837,0.6826434,-0.41906083,-0.88619053,-63726.332,-73724.234,0.5931748,-0.25265038,0.540583,-6212.048,-0.85165656,-0.04045725,-13727.825,-0.34730136,0.34400773],[0.33126354,-0.3260882,0.67362547,0.5720767,0.745111,16.63941,0.20897841,-0.97762,-0.08948922,-0.206948,0.47348166,37.53777,0.5387497,-94434150.0,-109251660.0,-0.30210716,-0.5028548,-0.13312197,-9204397.0,-0.8819511,-0.7496599,-20342868.0,-0.099655,-0.9376651],[0.11530602,-0.67876494,-0.35586143,-0.54841894,-0.20975065,-0.32658488,-0.21234095,-0.5217916,-0.5788841,-0.7213406,-0.4034133,-1.1411352,-0.61584014,-1.4614382,-1.7658669,-0.42440096,0.3649856,-0.6996348,-0.4696989,0.75199294,0.06536258,-0.5230965,-0.13504285,-0.39300573],[-0.85908294,0.78509593,-0.7211278,-0.5952504,0.9782591,-44.943863,0.27031374,0.9913622,0.08025408,0.12112224,0.5314528,-98.01233,-0.8192654,-69.85296,-35.033382,0.0155144185,0.548357,0.44816032,-66.48703,0.4973306,-0.8451259,-45.579155,0.44179836,0.8529304],[0.89650047,-0.14416003,-0.5902239,0.47189653,0.2234056,0.4048151,0.018320084,-0.55958104,-0.24146008,0.038060263,0.27025783,0.04559982,-0.60430276,-0.022600502,-0.5261922,0.016000867,-0.3051113,-0.78510654,-0.4786821,-0.30953193,0.4254389,0.45761144,0.007022977,-0.25752068],[-0.42515445,0.23634064,0.7859596,0.2326991,-0.098466516,0.4144394,-0.5883266,0.42291808,0.31197584,-0.7846279,0.90625215,-0.27388915,0.4247942,-0.8778881,-0.31675613,0.1189854,-0.579044,-0.18862832,0.4001072,-0.20664585,-0.26171932,0.75413966,-0.3355617,-0.44274092],[-0.74629366,0.9907384,-0.91489816,-0.406296,-0.5627541,-0.44360733,-0.10055542,-0.07957101,0.94703996,0.29461417,0.7931087,-0.12545466,-0.41862562,129281.18,149567.3,-0.6748557,0.19242036,0.16384692,12600.783,-0.36508754,-0.984709,27849.1,0.0053438926,0.263394],[0.96031535,-0.09853065,-0.6429908,-0.1254311,0.9351083,-0.9272131,0.6728904,0.2502538,0.7366674,0.14881468,-0.16823411,-0.33618823,-0.8778312,-39514.656,-45714.06,-0.38803148,-0.64570284,-0.77878857,-3852.457,0.52941096,-0.26548433,-8512.048,0.057132006,0.42099786],[0.33065176,0.17726147,0.002304554,-0.061702847,-0.6752032,-0.6029991,-0.008131623,-0.890018,-0.61451864,0.9091947,-0.06725156,-0.7103962,-0.7379142,-0.72330284,-0.99531686,-0.20794031,0.4561596,-0.822574,0.39451337,-0.3305024,-0.06539653,-0.2783831,0.20326456,0.8853656],[-0.45905522,-0.42085087,-0.08727894,-0.5126351,0.30735904,-0.61805916,0.6086222,0.027293086,0.25717616,-0.55190104,-0.6274742,-0.99218315,0.95987886,98271.95,113690.09,-0.5451909,0.811623,0.41623852,9578.467,-0.49487486,-0.08062259,21169.121,0.11143037,0.13414085],[-0.024136173,0.15772367,0.6014954,0.770707,0.51625955,-29.647305,-0.47860408,-0.5300045,0.9835212,0.39023715,-0.81597626,-65.40896,0.26487985,-45.593456,-24.357822,0.78281665,0.45130384,-0.8119433,-43.71674,-0.019869756,0.7097961,-30.156816,-0.47173136,0.6450424],[0.13322866,0.57906044,-0.71117604,-0.71143645,-0.6904501,-34.559124,0.572546,-0.26236022,0.6918924,0.9384213,-0.8492619,-73.171814,-0.5125842,-53.18643,-26.469828,0.32748154,0.20406103,-0.8235295,-49.34887,-0.6231104,0.9742875,-34.264465,-0.6707159,0.9073019],[-0.07581052,0.6420597,-0.5491866,0.21000446,0.124277145,-0.9012315,-0.48934853,0.5329722,0.0068153143,0.23092245,0.9227102,-4.617239,0.42102355,-2.381309,-2.4449136,-0.36391765,-0.41785693,-0.7016721,-2.091185,0.85686296,-0.92751914,-1.6178793,-0.13702044,-0.9945905],[0.03773439,-0.684162,0.43963552,-0.7214701,-0.66737676,-0.32235166,0.41288698,-0.93983305,-0.92399895,-0.96418375,0.95567346,-0.90677917,-0.3131852,-1.0346696,-1.0750434,-0.22931656,0.6765194,-0.6030563,-1.1649498,0.07842517,-0.39523622,-1.6883072,-0.48160928,0.44620323],[0.78600556,-0.8311317,-0.7569909,-0.8335017,-0.8209256,-0.8381965,0.5561191,-0.2880938,0.4963683,0.7758559,0.070506334,0.36824208,0.27467313,-1.1449823,-0.3391844,-0.50656563,-0.4443041,-0.87060827,-0.20126775,0.09830243,-0.9618921,0.4186634,0.2511021,0.9154525],[-0.5434293,-0.099414825,-0.32603943,0.6850817,0.73938555,0.83037186,0.06260705,-0.8518975,-0.85900617,-0.6496566,0.2294774,-0.7086144,0.5545277,-92560.836,-107084.016,0.04676404,-0.019863129,-0.31959182,-9022.144,-0.3607098,0.8703287,-19939.932,-0.45592943,0.5099466],[0.5651771,0.4289235,0.19580597,0.50386596,1.0251118,0.68604845,-0.9058895,-0.6181066,-0.7589829,0.9809736,-0.6257149,0.03945248,-0.74939996,0.11966646,-0.52260864,0.77075195,-0.19952703,0.47055784,-0.2896133,0.8040862,-0.51166904,-0.8125271,-0.28325847,-0.42508912],[-0.3248326,0.005810976,-0.10525952,-0.39122748,0.5614299,0.1526978,-0.74160147,0.13774025,-0.019991755,-0.70547503,-0.48442936,-0.95932096,-0.05443007,0.3753732,-0.49848807,0.09015937,-0.18907893,0.58243895,0.027640939,0.08215999,-0.46407276,0.7328205,0.30242825,0.97213125]],"biases":[0.22128098,-274243.7,92.00221,-1.2511163,-0.29764867,-3.368434,-176.34595,-262641.56,0.53994656,-3.0811439,-0.045849185,-0.8465962,310.41235,-110.29678,0.2506288,237.58327,-1.2617005,-2.4645855,-0.04446605,-0.83277184,-0.85909873,-256.67868,-0.3814069,0.35685554],"outputs":[0.0,0.0,100.461685,0.0,0.0,38.35531,0.0,0.0,0.0,3.7604113,0.0,0.0,290.3765,0.0,0.0,247.10191,10.409714,0.0,0.0,0.0,0.0,0.0,24.383781,3.1781912],"inputs":[0.96757114,0.0,0.0,0.0,15.865267,0.0,0.0,0.0,0.0,11.795898,0.0,0.0,7.816895,0.0,0.0,0.0,0.0,14.718466,0.0,2.0831957,12.429469,0.0,0.0,0.0],"deltas":[0.0,0.0,0.0,0.0,0.0,0.0,0.0,0.0,0.0,0.0,0.0,0.0,0.0,0.0,0.0,0.0,0.0,0.0,0.0,0.0,0.0,0.0,0.0,0.0]},{"weights":[[1.2011201,4.6999984,-30.456947,-0.9805287,0.7312086,-0.34223512,-0.74168766,4.2747555,-0.81382596,4.932503,0.43188685,-0.4537236,-102.33523,-0.13729143,0.52022946,-79.10933,3.1179829,3.0166054,0.7354445,-0.93131316,-0.6886264,-0.8786006,-0.25967938,-0.4562424],[1.5905701,1.0457413,0.6089221,-0.19274765,0.3353725,0.28432956,-0.14480674,0.7617966,-0.043816235,1.1861296,0.08940968,0.14663374,-0.60835004,0.59754324,-0.58819354,-0.18187098,1.3055414,1.1652008,0.15946662,-0.11999639,0.23461151,-0.37571234,0.423392,0.9671608],[1.1995386,0.47816136,-0.016417712,-0.6768933,-0.74446833,0.6024817,0.4040661,-0.5738633,0.7579161,0.51280785,0.2584207,0.57959306,-0.13017702,-0.50925994,0.748249,-0.4952597,0.013029814,0.6807448,0.4073739,-0.01100339,0.77274233,0.81459576,-0.76410854,0.22534189],[0.36607254,-13387811.0,-140343.34,20.275743,0.2014314,7.7170534,-11868.078,-6412180.0,-0.17349231,361.93802,0.021483064,0.71021247,-26839.764,-142096.39,0.3777144,-59370.79,108.060036,427.18655,61.94792,0.9855468,-0.054851532,-132330.75,-0.20567024,0.9505099]],"biases":[0.6244855,0.39363116,-0.4924262,-374.01572],"outputs":[0.0,0.0,0.0,0.0],"inputs":[0.0,0.0,100.461685,0.0,0.0,38.35531,0.0,0.0,0.0,3.7604113,0.0,0.0,290.3765,0.0,0.0,247.10191,10.409714,0.0,0.0,0.0,0.0,0.0,24.383781,3.1781912],"deltas":[0.0,0.0,0.0,0.0]}]}